0
0.186118
-1.39555
-0.105251
0
-0.178568
-2.72054
0
0
0.198798
-1.0437
0
0
-0.145634
-4.97129
0
0.959113
0.186129
-1.90946
-0.0744157
0.0326012
0.151711
-1.2526
-0.0712903
-0.507063
-0.0545867
-0.900825
-0.0495912
-0.311653
0.203883
-1.78964
0
0.251518
0.157635
-1.07088
-0.237503
-0.671039
-0.0235452
-1.17233
-0.307154
-0.0653043
-0.299874
-1.75767
0
0.755483
-0.162814
-2.792
0
0.353667
0.213122
0.285339
-0.362061
0.112261
0.181237
-0.98433
-0.520018
0.24801
0.0297151
-1.31768
-0.537952
0.12806
-0.126447
-0.722702
0.474675
0.450769
0.10554
-1.4327
-0.876471
0.383162
-0.0551457
-1.10923
-0.646877
0.30998
-0.105787
-1.71036
-0.732286
0.537632
0.00249398
-1.00455
-0.362226
-0.00674934
0
-1.00176
-0.160683
0.623691
-0.0752622
-0.844943
-0.40209
0.462074
0
-0.483207
-0.773201
0.474592
-0.213417
-0.929014
-0.561959
0.955306
0
-0.67396
-0.0198229
0.351803
0
-0.401052
-0.884739
0.841504
0
-0.201602
0.13873
0.831749
0
-2.13146
0.693812
1.33492
0
0
-0.236696
0.257391
0
0
-0.782909
0.422655
0
0
-0.512713
0.546002
0
0
-0.0336416
