0
1.46901
-0.455893
0
0
2.66071
-2.39605
0
0
2.09338
-0.506222
0
0
1.34954
0.550206
0
0.857042
0.191561
-1.04704
0
0.587982
0.3802
-0.363185
0
0.0161529
0.729181
-1.3146
0
-0.196857
0.140807
-1.50759
0
0.444078
0.259007
-0.729777
0
-0.0269891
0.146295
0.519174
0.0403787
-0.500176
0.380904
-1.08631
-0.186
0.160669
-0.46188
-1.434
0
0.248259
0
-1.46542
0
0.476596
0.211558
-1.39132
-0.595298
0.203936
-0.76514
-0.141185
-0.254729
-0.0277523
-0.210238
-0.701201
0.304691
0.750332
-0.157057
-1.25359
-0.663357
0.888183
0.369307
-0.744366
-0.299092
0.606068
0.0383827
-0.0083583
0.19092
0.271302
-0.255908
-0.0493047
0.101177
0.344513
0
-2.53766
0.358595
0.0709865
-0.415882
-0.722966
0.240685
0.290954
-0.374662
0.603208
0.69191
0.671061
-0.66394
-0.78666
0.0208907
1.0328
0.135285
-1.17343
0.462835
0.259378
-0.704762
-0.258781
-0.270424
-0.0847971
-0.0329473
0.108853
-0.239268
0.873809
0.144918
-0.658309
-0.302507
0.452588
-0.0478629
0
0.381393
-0.159157
-0.0874994
0
-0.516137
-0.327428
-0.62665
0
-0.70945
0.610137
0.484139
0
-1.23511
