0
0.238088
-2.43168
-0.105251
0
-0.457365
-2.11248
0
0
-0.00961355
-4.63667
0
0
-0.145634
-10.1655
0
0.512048
0.186129
-1.81012
-0.0744157
-0.30741
0.242176
-1.69141
-0.0712903
-1.49707
-0.0642441
-3.5133
-0.0495912
0.208044
0.203883
-3.75773
0
0.103545
0.157635
-1.80517
-0.972542
-0.281836
-0.0235452
-1.7883
-0.307154
0.342866
-0.179496
-3.12623
0
1.02848
-0.162814
-4.28273
0
0.30724
0.213122
-1.28363
-1.27474
0.284963
0.181237
-1.90044
-0.73029
0.331676
-0.0852996
-2.41888
-0.480945
0.197134
-0.126447
-2.5543
-0.510762
-0.239651
-0.365487
-1.94476
-0.342812
0.495321
-0.0551457
-1.71739
-0.533114
0.116239
-0.105787
-2.50882
-1.04557
0.317212
0.00249398
-2.91133
0.749898
0.0994708
0
-2.02436
-0.162506
0.244588
-0.0752622
-1.33181
-0.935982
0.763777
0
-1.0956
-0.590133
0.943398
-0.213417
-1.59631
-0.899129
0.130467
0
0.626334
0.192561
0.371094
0
-2.39261
-0.77889
1.07935
0
-0.494314
0.28186
0.935689
0
-2.71128
-1.46495
0.382796
0
0
-0.261375
0.780964
0
0
-1.24469
1.21723
0
0
-1.60104
0.975496
0
0
0.0112513
