0
0.116943
-1.44887
-0.105251
0
-0.178568
-2.20554
0
0
0.13285
-2.41535
0
0
-0.145634
-4.29649
0
-0.0472862
0.224431
-1.53655
-0.0744157
-0.0625474
0.151711
-2.23531
-0.0712903
-0.40329
-0.0545867
-1.10732
0
-0.415744
0.128475
-3.28548
0
0.477051
0.157635
-1.46729
-0.530604
-0.495986
-0.0235452
-0.800995
-0.33102
-0.146217
-0.299874
-1.84977
0
-0.0362187
-0.162814
-1.47517
0
0.291679
0.213122
0.208679
-0.0961027
0.283832
0.181237
-0.988171
-0.884404
-0.152797
0.0297151
-1.13596
0.0154723
0.284685
-0.126447
-0.811582
-0.155735
0.243099
0.10554
-0.648242
-0.750863
0.0754036
-0.0551457
-0.525402
-0.858335
0.0842682
-0.105787
-1.6207
-0.0473366
0.393816
0.00249398
-0.860433
0.326999
0.222245
0
-0.752961
-1.76543
-0.543031
-0.0752622
-0.487223
-0.326233
0.901943
0
-0.607688
-0.572899
0.685313
-0.213417
-0.306266
-0.525194
-0.372494
0
-0.491355
-0.828531
-0.0863631
0
-0.549235
-0.384855
-0.0419713
0
-0.480199
-0.328536
0.24832
0
-2.92562
-0.814616
-0.724704
0
0
0.862356
0.00048121
0
0
-0.473832
-0.00776205
0
0
-0.531955
0.0114169
0
0
-0.279701
