0
2.25994
-1.19378
0
0
2.94626
-0.415907
0
0
-0.11248
-1.94198
0
0
1.30357
-1.48231
0
0.532942
0.329127
-0.896563
0
-0.552767
0.530932
-2.27373
0
-0.644498
0.47132
-1.44411
0
0.437945
-0.26477
-1.1525
0
-0.0960564
0.445007
-0.570816
0
0.0853296
0.214889
-0.911414
0.0403787
-0.195963
0.118574
-0.868079
-0.186
0.115195
-0.46188
0.96619
0
-0.611967
0
-0.200838
0
0.617562
0.158461
-0.973022
-0.595298
-0.0439224
-0.866084
0.448634
-0.254729
0.468096
-0.00122666
-0.182844
0.304691
0.54599
-0.130876
0.0302848
-0.663357
0.58895
0.0156136
-1.19242
-0.477001
0.335489
-0.133824
-1.10805
-0.177445
-0.0130878
-0.315468
-0.256043
0.101177
0.754181
0
-2.83006
-0.187685
-0.0152857
-0.380483
0.60605
0.240685
0.264748
-0.332929
1.82821
0.73554
-0.652301
-1.13558
-0.672833
-0.323844
0.132462
0.2
-0.449759
0.484771
0.110134
-0.509803
-0.638095
0.258822
-0.0380621
0.356972
-0.72499
0.0507372
0.884683
0.0454924
-0.87722
0.0263117
0.331314
0
0
0.393876
0.304531
0
0
-0.4317
0.39438
-0.388994
0
-0.359944
0.377622
0.63844
0
0.368718
