0
0.186118
-2.19722
-0.105251
0
-0.178568
-1.66914
0
0
0.198798
-3.15299
0
0
-0.145634
-7.37264
0
0.512048
0.186129
-2.42992
-0.0744157
-0.28022
0.151711
-1.96393
-0.0712903
-1.28646
-0.0545867
-1.72977
-0.0495912
0.0794985
0.203883
-1.96582
0
0.49624
0.157635
-2.02458
-0.619911
-0.611909
-0.0235452
-2.74006
-0.307154
0.146833
-0.299874
-1.68814
0
1.00737
-0.162814
-2.76834
0
1.54574
0.213122
-1.31194
-0.42318
0.391756
0.181237
-1.94148
-2.06034
0.0962875
0.0297151
-1.79137
-0.636389
0.0487703
-0.126447
-2.23046
0.508952
0.041256
0.10554
-1.27255
-0.572166
0.177387
-0.0551457
-0.527628
-0.318533
-0.233547
-0.105787
-1.48409
-0.952667
0.206827
0.00249398
-1.61417
0.893612
-0.195473
0
-1.84874
-1.44583
-0.182486
-0.0752622
-1.52352
-0.368499
-0.0941982
0
-2.372
-1.34656
0.284679
-0.213417
-2.1898
-0.952838
0.187809
0
1.8385
-0.133809
0.468874
0
-0.80397
0.519734
0.649674
0
-1.80359
0.0522716
0.971687
0
-2.55517
0.317131
0.514044
0
0
-0.499382
0.712197
0
0
-1.93687
0.986315
0
0
-1.03048
0.467458
0
0
-2.07857
