0
0.479407
-2.11296
-0.105251
0
-0.661374
-0.525662
0
0
-0.00961355
-2.06775
0
0
-0.145634
-8.96223
0
0.0654259
0.186129
-1.62485
-0.0744157
-0.450057
0.326592
-0.738075
-0.0712903
-1.49707
-0.0642441
-1.86081
-0.0495912
0.208044
-0.0892114
-2.07512
0
-0.34048
0.106478
-0.583916
-0.644741
0.090971
-0.0235452
-0.817862
-0.175419
-0.404439
-0.739975
-1.49213
0
0.923261
-0.162814
-1.12495
-0.0500564
-0.195737
0.213122
-1.34586
-0.246649
0.425683
0.146048
-1.72656
-0.913301
-0.3241
-0.0852996
-1.43993
-0.863052
0.357903
-0.126447
-1.15608
-0.363345
0.17934
-0.365487
-1.31991
-0.830015
0.299329
-0.0551457
-1.98614
0.455682
-0.33601
-0.105787
-1.55923
-0.541737
1.34482
0.00249398
-1.90024
1.66895
0.515432
0
-2.11619
-0.817591
-0.375036
-0.0752622
-1.47623
-0.78256
1.19447
0
-1.60303
-0.259624
1.46993
-0.213417
-1.63222
-0.466022
0.347426
0
0.385317
-0.68734
-0.339892
0
-1.38063
0.0624194
0.361874
0
-0.496973
0.109175
1.30952
0
-1.26856
-0.425666
-0.151996
0
0
-0.964198
0.560955
0
0
-0.485144
0.50692
0
0
0.244385
0.74439
0
0
-0.631583
