0
0.633906
-0.694698
-0.105251
0
-0.0989312
-1.42065
0
0
0.0243637
-2.74431
0
0
-0.145634
-4.99977
0
0.686047
0.314187
-1.90459
-0.0744157
-0.511197
0.603579
-2.01253
-0.0712903
-0.572016
-0.1257
-2.47743
-0.0495912
0.295224
-0.0892114
-3.64103
0
-0.278859
0.675368
-2.7941
-0.770623
-0.315459
-0.0892435
-2.39043
-0.175419
-0.191632
-1.02884
-2.72268
0
1.48516
-0.162814
-3.49011
-0.0500564
-0.944962
0.213122
-0.688459
-0.403427
0.498758
0.146048
-1.46639
-0.716944
0.510857
0.13306
-1.35104
-0.615157
0.232413
-0.126447
-1.85262
-1.0818
0.051502
-0.365487
-0.516734
-0.632015
-0.105907
-0.222349
-1.02004
0.0419681
0.0540125
-0.0170801
-0.765907
-0.501924
-0.196543
0.00249398
-1.1301
0.87834
-0.117958
0
-1.63405
-2.21062
-0.193847
-0.0752622
-0.375819
0.619528
0.131035
-0.127143
-1.43865
-0.414498
-0.0773766
-0.331061
-0.965067
-0.234422
0.126534
0
-0.723352
-0.696702
-0.305101
0
-0.844086
-0.130805
0.56411
-0.127116
0.348834
-0.678185
-0.010966
-0.033716
-0.468615
1.15128
-0.0216498
0
0
-0.668964
0.0278696
0
0
-1.31705
-0.56119
0
0
-0.61534
0.429365
-0.0355575
0
-0.751089
