0.0343791
0.1
0.100784
-0.0976151
-0.0997095
0.1
0.100647
-0.103217
-0.0999543
0.1
0.101741
-0.0892655
-0.1
0.1
0.100832
-0.089376
-0.0996285
0.101576
0.100102
-0.100084
-0.0999993
0.100874
0.100208
-0.0893159
-0.0997401
0.10168
0.1024
-0.0957051
-0.0994685
0.103296
0.102355
-0.0799034
-0.0996464
0.101945
0.100302
-0.102933
-0.099372
0.0999892
0.100355
-0.106973
-0.0988797
0.0999089
0.102729
-0.0875255
-0.0962678
0.109702
0.100889
-0.101803
-0.0979415
0.106198
0.100428
-0.0964538
-0.0916892
0.10512
0.101349
-0.0824309
-0.0969584
0.105117
0.101072
-0.10137
-0.0973129
0.106527
0.101013
-0.0971525
-0.0970071
0.107529
0.100373
-0.0970664
-0.0972611
0.101486
0.100731
-0.094496
-0.0989857
0.103834
0.100642
-0.0976515
-0.0982981
0.106698
0.100342
-0.105429
-0.0972294
0.0863079
0.100125
-0.0973519
-0.0961217
0.0833693
0.100247
-0.099163
-0.0919884
0.0982458
0.100733
-0.0974533
-0.0970759
0.0931031
0.100133
-0.0975457
-0.0961758
0.082572
0.100084
-0.0979458
-0.0982138
0.082736
0.10061
-0.0977335
-0.0975751
0.0836575
0.100311
-0.0973529
-0.0956585
0.0831435
0.0999483
-0.0816556
-0.0974883
0.0719668
0.1
-0.1
-0.0881383
0.0744718
0.1
-0.1
-0.0949443
0.073795
0.100128
-0.1
-0.0907631
0.0785476
0.0999435
-0.1
-0.0802534
-0.0465959
0.01804
0.121556
0.0102539
-0.0250402
0.128294
0.101292
-0.0889826
0.101152
0.0948917
