-1.59268e+49
1
3.79805e+17
-3.50816e+48
1
1
-6.25905e+16
-7.65732e+47
1
1
1.12041e+50
-7.41799e+46
1
1
-2.01077e+50
7.89071e+49
1
-4.13189e+17
1
4.3994e+49
1
-2.33686e+50
1
-5.60979e+47
1
-9.86452e+49
1
-1.40898e+48
1
9.90696e+48
-7.6929e+47
-8.29137e+46
1
-1.92681e+16
5.90144e+16
3.46404e+48
1
-8.12005e+49
1.88303e+38
-3.56846e+48
1
-3.46408e+49
1
2.06809e+49
1
1.27e+48
-5.36248e+48
-6.51884e+48
1
1.37465e+49
1
3.42145e+37
1
-8.4412e+49
1
-3.14976e+47
9.39197e+17
-1.50276e+47
1
3.89445e+49
1
-1.2691e+46
2.11251e+49
-4.5246e+50
1
1.66372e+49
1
-9.56603e+38
1
1.36261e+49
1
-1.31784e+15
1
-3.58761e+48
3.70647e+49
4.12936e+49
1
-8.63087e+45
1
-2.66258e+47
1
-2.46226e+49
1
-4.04816e+17
-2.38798e+19
-2.25773e+48
1
8.60873e+38
2.23848e+27
-3.81706e+48
1
-7.36007e+49
-5.45482e+19
-8.70017e+46
1
-4.7004e+48
8.18213e+27
4.34047e+49
1
4.17111e+38
1
-5.54304e+48
1
4.95102e+26
1
-1.81419e+47
1
-2.60685e+49
-9.21502e+49
-8.96875e+46
1
1
-1.28649e+50
2.28484e+49
1
1
1
6.05326e+48
1
1
6.6669e+19
-2.52716e+47
1
1
1.75639e+49
-4.79473e+47
1
1
-1.16253e+50
-4.46181e+50
-3.46615e+50
-3.69774e+49
-3.19488e+50
-4.83158e+50
-6.66103e+50
3.23447e+38
1.92387e+27
-5.53286e+50
-3.25469e+50
