-0.00123265
0.1
0.1
-0.319559
-0.1
0.1
0.1
0.374887
-0.1
0.1
0.1
-0.571795
-0.1
0.1
0.1
-0.716299
-0.1
0.1
0.1
-0.723014
-0.1
0.1
0.1
-0.235249
-0.1
0.0998279
0.1
-0.0166672
-0.1
0.0993287
0.1
0.122228
-0.1
0.0983316
0.1
-0.754712
-0.1
0.0963737
0.1
-0.336422
-0.1
0.0832568
0.1
-0.150821
-0.1
0.0996749
0.1
-0.521082
-0.1
-0.0416034
0.1
-0.119008
-0.100015
0.0688195
0.1
-0.178748
-0.144608
-0.0921052
0.1
-0.0349537
-0.160626
0.0118724
0.1
-0.021009
-0.133189
-0.0387252
0.1
-0.099337
-0.135854
-0.113624
0.1
-0.0776713
-0.100952
0.000396013
0.1
-0.257457
-0.0985189
0.0860161
0.1
-0.147175
-0.1
0.493676
0.1
-0.542379
-0.238319
-0.0326749
0.1
-0.092486
-0.0952272
0.157577
0.1
-0.265965
-0.22198
0.0244514
0.1
-0.156174
-0.101252
0.0377827
0.1
-0.0638084
-0.119707
-0.0567417
0.1
-0.104539
-0.125746
0.587619
0.1
-0.37244
-0.128511
0.213124
0.1
-0.152508
-0.1
-0.126948
0.1
-0.1
-0.106519
0.21274
0.1
-0.1
-0.368511
0.665416
0.1
-0.1
-0.10604
0.518263
0.1
-0.1
-0.14458
0.652128
-3.83413
0.1
-0.930148
0.652128
-4.66432
0.1
-0.164588
-0.053302
-1.41702
